digraph Tree {
node [shape=box, style="filled, rounded", color="black", fontname="helvetica"] ;
edge [fontname="helvetica"] ;
0 [label="petal width (cm) <= 0.75\ngini = 0.66\nsamples = 95\nvalue = [46, 59, 45]\nclass = versicolor", fillcolor="#e6fcef"] ;
1 [label="gini = 0.0\nsamples = 28\nvalue = [46, 0, 0]\nclass = setosa", fillcolor="#e58139"] ;
0 -> 1 [labeldistance=2.5, labelangle=45, headlabel="True"] ;
2 [label="petal length (cm) <= 4.85\ngini = 0.49\nsamples = 67\nvalue = [0, 59, 45]\nclass = versicolor", fillcolor="#d0f9e1"] ;
0 -> 2 [labeldistance=2.5, labelangle=-45, headlabel="False"] ;
3 [label="petal width (cm) <= 1.7\ngini = 0.07\nsamples = 35\nvalue = [0, 55, 2]\nclass = versicolor", fillcolor="#40e686"] ;
2 -> 3 ;
4 [label="gini = 0.0\nsamples = 32\nvalue = [0, 54, 0]\nclass = versicolor", fillcolor="#39e581"] ;
3 -> 4 ;
5 [label="sepal length (cm) <= 5.95\ngini = 0.44\nsamples = 3\nvalue = [0, 1, 2]\nclass = virginica", fillcolor="#c09cf2"] ;
3 -> 5 ;
6 [label="gini = 0.0\nsamples = 1\nvalue = [0, 1, 0]\nclass = versicolor", fillcolor="#39e581"] ;
5 -> 6 ;
7 [label="gini = 0.0\nsamples = 2\nvalue = [0, 0, 2]\nclass = virginica", fillcolor="#8139e5"] ;
5 -> 7 ;
8 [label="petal width (cm) <= 1.75\ngini = 0.16\nsamples = 32\nvalue = [0, 4, 43]\nclass = virginica", fillcolor="#8d4be7"] ;
2 -> 8 ;
9 [label="petal length (cm) <= 4.95\ngini = 0.48\nsamples = 6\nvalue = [0, 4, 6]\nclass = virginica", fillcolor="#d5bdf6"] ;
8 -> 9 ;
10 [label="gini = 0.0\nsamples = 1\nvalue = [0, 2, 0]\nclass = versicolor", fillcolor="#39e581"] ;
9 -> 10 ;
11 [label="sepal width (cm) <= 2.65\ngini = 0.38\nsamples = 5\nvalue = [0, 2, 6]\nclass = virginica", fillcolor="#ab7bee"] ;
9 -> 11 ;
12 [label="gini = 0.0\nsamples = 2\nvalue = [0, 0, 4]\nclass = virginica", fillcolor="#8139e5"] ;
11 -> 12 ;
13 [label="sepal width (cm) <= 2.85\ngini = 0.5\nsamples = 3\nvalue = [0, 2, 2]\nclass = versicolor", fillcolor="#ffffff"] ;
11 -> 13 ;
14 [label="gini = 0.0\nsamples = 1\nvalue = [0, 1, 0]\nclass = versicolor", fillcolor="#39e581"] ;
13 -> 14 ;
15 [label="sepal length (cm) <= 6.95\ngini = 0.44\nsamples = 2\nvalue = [0, 1, 2]\nclass = virginica", fillcolor="#c09cf2"] ;
13 -> 15 ;
16 [label="gini = 0.0\nsamples = 1\nvalue = [0, 1, 0]\nclass = versicolor", fillcolor="#39e581"] ;
15 -> 16 ;
17 [label="gini = 0.0\nsamples = 1\nvalue = [0, 0, 2]\nclass = virginica", fillcolor="#8139e5"] ;
15 -> 17 ;
18 [label="gini = 0.0\nsamples = 26\nvalue = [0, 0, 37]\nclass = virginica", fillcolor="#8139e5"] ;
8 -> 18 ;
}