digraph Tree {
node [shape=box, style="filled, rounded", color="black", fontname="helvetica"] ;
edge [fontname="helvetica"] ;
0 [label="petal width (cm) <= 0.75\ngini = 0.66\nsamples = 87\nvalue = [47, 55, 48]\nclass = versicolor", fillcolor="#f1fdf6"] ;
1 [label="gini = 0.0\nsamples = 30\nvalue = [47, 0, 0]\nclass = setosa", fillcolor="#e58139"] ;
0 -> 1 [labeldistance=2.5, labelangle=45, headlabel="True"] ;
2 [label="petal length (cm) <= 4.95\ngini = 0.5\nsamples = 57\nvalue = [0, 55, 48]\nclass = versicolor", fillcolor="#e6fcef"] ;
0 -> 2 [labeldistance=2.5, labelangle=-45, headlabel="False"] ;
3 [label="petal length (cm) <= 4.75\ngini = 0.24\nsamples = 33\nvalue = [0, 54, 9]\nclass = versicolor", fillcolor="#5ae996"] ;
2 -> 3 ;
4 [label="sepal width (cm) <= 2.55\ngini = 0.08\nsamples = 25\nvalue = [0, 46, 2]\nclass = versicolor", fillcolor="#42e686"] ;
3 -> 4 ;
5 [label="petal width (cm) <= 1.6\ngini = 0.3\nsamples = 7\nvalue = [0, 9, 2]\nclass = versicolor", fillcolor="#65eb9d"] ;
4 -> 5 ;
6 [label="gini = 0.0\nsamples = 6\nvalue = [0, 9, 0]\nclass = versicolor", fillcolor="#39e581"] ;
5 -> 6 ;
7 [label="gini = 0.0\nsamples = 1\nvalue = [0, 0, 2]\nclass = virginica", fillcolor="#8139e5"] ;
5 -> 7 ;
8 [label="gini = 0.0\nsamples = 18\nvalue = [0, 37, 0]\nclass = versicolor", fillcolor="#39e581"] ;
4 -> 8 ;
9 [label="sepal length (cm) <= 6.25\ngini = 0.5\nsamples = 8\nvalue = [0, 8, 7]\nclass = versicolor", fillcolor="#e6fcef"] ;
3 -> 9 ;
10 [label="sepal length (cm) <= 5.95\ngini = 0.38\nsamples = 5\nvalue = [0, 2, 6]\nclass = virginica", fillcolor="#ab7bee"] ;
9 -> 10 ;
11 [label="sepal length (cm) <= 5.75\ngini = 0.5\nsamples = 2\nvalue = [0, 2, 2]\nclass = versicolor", fillcolor="#ffffff"] ;
10 -> 11 ;
12 [label="gini = 0.0\nsamples = 1\nvalue = [0, 0, 2]\nclass = virginica", fillcolor="#8139e5"] ;
11 -> 12 ;
13 [label="gini = 0.0\nsamples = 1\nvalue = [0, 2, 0]\nclass = versicolor", fillcolor="#39e581"] ;
11 -> 13 ;
14 [label="gini = 0.0\nsamples = 3\nvalue = [0, 0, 4]\nclass = virginica", fillcolor="#8139e5"] ;
10 -> 14 ;
15 [label="sepal length (cm) <= 6.6\ngini = 0.24\nsamples = 3\nvalue = [0, 6, 1]\nclass = versicolor", fillcolor="#5ae996"] ;
9 -> 15 ;
16 [label="sepal width (cm) <= 2.6\ngini = 0.38\nsamples = 2\nvalue = [0, 3, 1]\nclass = versicolor", fillcolor="#7beeab"] ;
15 -> 16 ;
17 [label="gini = 0.0\nsamples = 1\nvalue = [0, 3, 0]\nclass = versicolor", fillcolor="#39e581"] ;
16 -> 17 ;
18 [label="gini = 0.0\nsamples = 1\nvalue = [0, 0, 1]\nclass = virginica", fillcolor="#8139e5"] ;
16 -> 18 ;
19 [label="gini = 0.0\nsamples = 1\nvalue = [0, 3, 0]\nclass = versicolor", fillcolor="#39e581"] ;
15 -> 19 ;
20 [label="petal width (cm) <= 1.75\ngini = 0.05\nsamples = 24\nvalue = [0, 1, 39]\nclass = virginica", fillcolor="#843ee6"] ;
2 -> 20 ;
21 [label="petal width (cm) <= 1.65\ngini = 0.22\nsamples = 5\nvalue = [0, 1, 7]\nclass = virginica", fillcolor="#9355e9"] ;
20 -> 21 ;
22 [label="gini = 0.0\nsamples = 4\nvalue = [0, 0, 7]\nclass = virginica", fillcolor="#8139e5"] ;
21 -> 22 ;
23 [label="gini = 0.0\nsamples = 1\nvalue = [0, 1, 0]\nclass = versicolor", fillcolor="#39e581"] ;
21 -> 23 ;
24 [label="gini = 0.0\nsamples = 19\nvalue = [0, 0, 32]\nclass = virginica", fillcolor="#8139e5"] ;
20 -> 24 ;
}